booster[0]:
0:[f5<2.5] yes=1,no=2,missing=1
	1:[f12<-1.38199997] yes=3,no=4,missing=3
		3:leaf=0.857142866
		4:leaf=-0.423357666
	2:[f12<1.33150005] yes=5,no=6,missing=5
		5:leaf=0.441314548
		6:leaf=-1.05882359
booster[1]:
0:[f13<119175128] yes=1,no=2,missing=1
	1:[f4<99441888] yes=3,no=4,missing=3
		3:leaf=1.08663082
		4:leaf=-1.02354419
	2:[f9<-0.996299982] yes=5,no=6,missing=5
		5:leaf=-0.631098509
		6:leaf=0.213270783
booster[2]:
0:[f9<0.138999999] yes=1,no=2,missing=1
	1:[f12<0.268000007] yes=3,no=4,missing=3
		3:leaf=0.568716228
		4:leaf=-0.282470882
	2:[f6<0.176850006] yes=5,no=6,missing=5
		5:leaf=-0.686529517
		6:leaf=0.0934197232
booster[3]:
0:[f15<0.924650013] yes=1,no=2,missing=1
	1:[f9<0.821250021] yes=3,no=4,missing=3
		3:leaf=-0.0152358739
		4:leaf=0.620390832
	2:[f12<0.588699996] yes=5,no=6,missing=5
		5:leaf=-0.850015163
		6:leaf=0.468809783
booster[4]:
0:[f3<-2.10389996] yes=1,no=2,missing=1
	1:[f4<215578368] yes=3,no=4,missing=3
		3:leaf=1.081411
		4:leaf=0.0545048788
	2:[f3<-1.42630005] yes=5,no=6,missing=5
		5:leaf=-0.960717499
		6:leaf=0.00515306694
booster[5]:
0:[f6<-0.298049986] yes=1,no=2,missing=1
	1:[f12<0.137400001] yes=3,no=4,missing=3
		3:leaf=0.557591856
		4:leaf=-0.242227614
	2:[f6<-0.176100001] yes=5,no=6,missing=5
		5:leaf=-0.973069131
		6:leaf=-0.00607207092
booster[6]:
0:[f3<-0.466650009] yes=1,no=2,missing=1
	1:[f7<161902912] yes=3,no=4,missing=3
		3:leaf=0.607907712
		4:leaf=-0.225693703
	2:[f3<-0.179199994] yes=5,no=6,missing=5
		5:leaf=-0.854537427
		6:leaf=0.0639734939
booster[7]:
0:[f7<129812624] yes=1,no=2,missing=1
	1:[f12<-0.17930001] yes=3,no=4,missing=3
		3:leaf=-0.857853651
		4:leaf=0.0380816311
	2:[f15<0.000699999742] yes=5,no=6,missing=5
		5:leaf=-0.156568721
		6:leaf=0.366129279
booster[8]:
0:[f13<137850048] yes=1,no=2,missing=1
	1:[f3<0.373899996] yes=3,no=4,missing=3
		3:leaf=0.558728814
		4:leaf=-0.256834894
	2:[f13<140145664] yes=5,no=6,missing=5
		5:leaf=-1.51537418
		6:leaf=-0.0253610276
booster[9]:
0:[f3<1.06465006] yes=1,no=2,missing=1
	1:[f12<0.3829] yes=3,no=4,missing=3
		3:leaf=-0.198852673
		4:leaf=0.175488636
	2:[f3<2.17045021] yes=5,no=6,missing=5
		5:leaf=0.802969158
		6:leaf=-0.529150426
booster[10]:
0:[f12<1.79635] yes=1,no=2,missing=1
	1:[f6<-1.74220002] yes=3,no=4,missing=3
		3:leaf=-0.724351525
		4:leaf=0.0931951106
	2:[f12<2.32124996] yes=5,no=6,missing=5
		5:leaf=-1.1971947
		6:leaf=0.16606994
booster[11]:
0:[f9<-0.938050032] yes=1,no=2,missing=1
	1:[f12<-0.663550019] yes=3,no=4,missing=3
		3:leaf=0.700197816
		4:leaf=-0.807630718
	2:[f13<237821984] yes=5,no=6,missing=5
		5:leaf=0.11044769
		6:leaf=-0.622990847
booster[12]:
0:[f10<230064192] yes=1,no=2,missing=1
	1:[f15<-0.1699] yes=3,no=4,missing=3
		3:leaf=0.119897895
		4:leaf=-0.220977724
	2:[f15<0.408450007] yes=5,no=6,missing=5
		5:leaf=0.0732482597
		6:leaf=1.11151505
booster[13]:
0:[f6<0.527700007] yes=1,no=2,missing=1
	1:[f6<0.176850006] yes=3,no=4,missing=3
		3:leaf=-0.0324462093
		4:leaf=0.498620391
	2:[f6<0.660899997] yes=5,no=6,missing=5
		5:leaf=-1.12386966
		6:leaf=0.0644383878
booster[14]:
0:[f6<1.06465006] yes=1,no=2,missing=1
	1:[f6<0.909349978] yes=3,no=4,missing=3
		3:leaf=-0.00250582513
		4:leaf=0.910569847
	2:[f5<2.5] yes=5,no=6,missing=5
		5:leaf=-0.820390344
		6:leaf=0.0197656937
booster[15]:
0:[f12<-1.35054994] yes=1,no=2,missing=1
	1:[f12<-1.78314996] yes=3,no=4,missing=3
		3:leaf=0.418231875
		4:leaf=-1.18486071
	2:[f12<-0.781450033] yes=5,no=6,missing=5
		5:leaf=0.703778148
		6:leaf=-0.00359042082
booster[16]:
0:[f9<1.33150005] yes=1,no=2,missing=1
	1:[f12<1.22130001] yes=3,no=4,missing=3
		3:leaf=0.0936841443
		4:leaf=-0.488186717
	2:[f4<161864944] yes=5,no=6,missing=5
		5:leaf=0.179018453
		6:leaf=-1.11225808
booster[17]:
0:[f7<173937760] yes=1,no=2,missing=1
	1:[f13<168000784] yes=3,no=4,missing=3
		3:leaf=-0.00103354105
		4:leaf=-0.604961336
	2:[f13<141153376] yes=5,no=6,missing=5
		5:leaf=-0.731895506
		6:leaf=0.253005475
booster[18]:
0:[f4<217580640] yes=1,no=2,missing=1
	1:[f4<205481472] yes=3,no=4,missing=3
		3:leaf=-0.0303646568
		4:leaf=0.907916069
	2:[f4<237821984] yes=5,no=6,missing=5
		5:leaf=-0.812511742
		6:leaf=0.122331962
booster[19]:
0:[f15<-0.37349999] yes=1,no=2,missing=1
	1:[f16<231279680] yes=3,no=4,missing=3
		3:leaf=-0.373984665
		4:leaf=0.872339547
	2:[f16<233166704] yes=5,no=6,missing=5
		5:leaf=0.165299237
		6:leaf=-0.575078726
booster[20]:
0:[f15<-1.37325001] yes=1,no=2,missing=1
	1:[f9<-0.996299982] yes=3,no=4,missing=3
		3:leaf=-0.164370552
		4:leaf=0.820792198
	2:[f6<-1.72215009] yes=5,no=6,missing=5
		5:leaf=-0.763815343
		6:leaf=-0.00536264293
booster[21]:
0:[f9<0.138999999] yes=1,no=2,missing=1
	1:[f11<1.5] yes=3,no=4,missing=3
		3:leaf=-0.46257633
		4:leaf=0.25522691
	2:[f16<127241952] yes=5,no=6,missing=5
		5:leaf=0.510921121
		6:leaf=-0.331306934
booster[22]:
0:[f7<129812624] yes=1,no=2,missing=1
	1:[f4<136006080] yes=3,no=4,missing=3
		3:leaf=-0.52861464
		4:leaf=0.218107566
	2:[f7<131455984] yes=5,no=6,missing=5
		5:leaf=1.20662034
		6:leaf=0.0487570018
booster[23]:
0:[f4<102886088] yes=1,no=2,missing=1
	1:leaf=0.692985892
	2:[f4<110271448] yes=3,no=4,missing=3
		3:leaf=-0.873362541
		4:leaf=0.0217142124
booster[24]:
0:[f6<-0.274250001] yes=1,no=2,missing=1
	1:[f6<-0.466650009] yes=3,no=4,missing=3
		3:leaf=-0.026705604
		4:leaf=0.810020089
	2:[f1<4.5] yes=5,no=6,missing=5
		5:leaf=-0.26939258
		6:leaf=0.501286447
booster[25]:
0:[f12<0.3829] yes=1,no=2,missing=1
	1:[f12<0.33160001] yes=3,no=4,missing=3
		3:leaf=0.0165873151
		4:leaf=-1.00954986
	2:[f6<0.043250002] yes=5,no=6,missing=5
		5:leaf=-0.162866682
		6:leaf=0.550459504
booster[26]:
0:[f6<-0.756299973] yes=1,no=2,missing=1
	1:[f2<3.5] yes=3,no=4,missing=3
		3:leaf=0.81157124
		4:leaf=-0.357766092
	2:[f3<-0.435100019] yes=5,no=6,missing=5
		5:leaf=0.207722455
		6:leaf=-0.184010446
booster[27]:
0:[f9<-0.938050032] yes=1,no=2,missing=1
	1:[f10<123933504] yes=3,no=4,missing=3
		3:leaf=0.50330168
		4:leaf=-0.538507819
	2:[f13<105205744] yes=5,no=6,missing=5
		5:leaf=-0.702667058
		6:leaf=0.102864392
booster[28]:
0:[f7<100080968] yes=1,no=2,missing=1
	1:leaf=0.628835797
	2:[f12<0.874500036] yes=3,no=4,missing=3
		3:leaf=0.0158799868
		4:leaf=-0.484933883
booster[29]:
0:[f6<0.614499986] yes=1,no=2,missing=1
	1:[f6<0.527700007] yes=3,no=4,missing=3
		3:leaf=-0.00712922402
		4:leaf=-0.857134163
	2:[f7<215754960] yes=5,no=6,missing=5
		5:leaf=0.44759497
		6:leaf=-0.544375002
booster[30]:
0:[f10<194155408] yes=1,no=2,missing=1
	1:[f13<178035648] yes=3,no=4,missing=3
		3:leaf=-0.0159728099
		4:leaf=-0.45052585
	2:[f6<-0.394299984] yes=5,no=6,missing=5
		5:leaf=-0.541218698
		6:leaf=0.503905714
booster[31]:
0:[f3<-1.42630005] yes=1,no=2,missing=1
	1:[f10<147777440] yes=3,no=4,missing=3
		3:leaf=0.255319446
		4:leaf=-0.775528014
	2:[f7<139970176] yes=5,no=6,missing=5
		5:leaf=-0.158283159
		6:leaf=0.121502109
booster[32]:
0:[f6<-0.536949992] yes=1,no=2,missing=1
	1:[f3<0.0658000037] yes=3,no=4,missing=3
		3:leaf=-0.125356674
		4:leaf=0.500412703
	2:[f10<145326400] yes=5,no=6,missing=5
		5:leaf=0.122854717
		6:leaf=-0.204520643
booster[33]:
0:[f5<2.5] yes=1,no=2,missing=1
	1:[f6<0.348399997] yes=3,no=4,missing=3
		3:leaf=-0.428045005
		4:leaf=0.210964739
	2:[f3<-0.461499989] yes=5,no=6,missing=5
		5:leaf=0.513921618
		6:leaf=-0.0225708485
booster[34]:
0:[f6<0.797250032] yes=1,no=2,missing=1
	1:[f6<0.747099996] yes=3,no=4,missing=3
		3:leaf=0.0352843031
		4:leaf=0.740882158
	2:[f16<161079872] yes=5,no=6,missing=5
		5:leaf=-0.502806723
		6:leaf=0.0655268803
booster[35]:
0:[f13<120830784] yes=1,no=2,missing=1
	1:[f6<-0.357249975] yes=3,no=4,missing=3
		3:leaf=0.301089406
		4:leaf=-0.648239017
	2:[f3<1.71714997] yes=5,no=6,missing=5
		5:leaf=0.0988256931
		6:leaf=-0.845156491
booster[36]:
0:[f4<102886088] yes=1,no=2,missing=1
	1:leaf=0.513717353
	2:[f3<0.277649999] yes=3,no=4,missing=3
		3:leaf=-0.13581787
		4:leaf=0.122682914
booster[37]:
0:[f15<0.0672000051] yes=1,no=2,missing=1
	1:[f3<-0.257050008] yes=3,no=4,missing=3
		3:leaf=0.229660705
		4:leaf=-0.25776878
	2:[f16<157622720] yes=5,no=6,missing=5
		5:leaf=0.389521062
		6:leaf=-0.0832755864
booster[38]:
0:[f3<-0.346899986] yes=1,no=2,missing=1
	1:[f9<-0.487349987] yes=3,no=4,missing=3
		3:leaf=0.267919838
		4:leaf=-0.411785692
	2:[f12<-0.399250001] yes=5,no=6,missing=5
		5:leaf=-0.250977367
		6:leaf=0.24298133
booster[39]:
0:[f9<-0.299049973] yes=1,no=2,missing=1
	1:[f12<-0.294149995] yes=3,no=4,missing=3
		3:leaf=0.220967844
		4:leaf=-0.388505727
	2:[f15<-0.1699] yes=5,no=6,missing=5
		5:leaf=0.327838182
		6:leaf=-0.0574301369
booster[40]:
0:[f9<0.138999999] yes=1,no=2,missing=1
	1:[f9<0.0315000005] yes=3,no=4,missing=3
		3:leaf=-0.00561666535
		4:leaf=0.587317944
	2:[f9<0.373750001] yes=5,no=6,missing=5
		5:leaf=-0.528376997
		6:leaf=0.0672889426
booster[41]:
0:[f12<-2.03789997] yes=1,no=2,missing=1
	1:leaf=0.504767478
	2:[f16<138297424] yes=3,no=4,missing=3
		3:leaf=-0.23678802
		4:leaf=0.0666312277
booster[42]:
0:[f16<127241952] yes=1,no=2,missing=1
	1:[f13<136775968] yes=3,no=4,missing=3
		3:leaf=-0.0356626771
		4:leaf=0.841160476
	2:[f6<-0.422549993] yes=5,no=6,missing=5
		5:leaf=-0.307669252
		6:leaf=0.0394080766
booster[43]:
0:[f4<166773280] yes=1,no=2,missing=1
	1:[f12<-1.35054994] yes=3,no=4,missing=3
		3:leaf=-0.450413406
		4:leaf=0.197609708
	2:[f3<-0.152649999] yes=5,no=6,missing=5
		5:leaf=-0.435686946
		6:leaf=0.0639824942
booster[44]:
0:[f7<246451392] yes=1,no=2,missing=1
	1:[f3<1.18245006] yes=3,no=4,missing=3
		3:leaf=-0.080616191
		4:leaf=0.358726054
	2:leaf=0.435083807
booster[45]:
0:[f15<0.127849996] yes=1,no=2,missing=1
	1:[f13<112860192] yes=3,no=4,missing=3
		3:leaf=0.496325821
		4:leaf=-0.140851974
	2:[f7<128051624] yes=5,no=6,missing=5
		5:leaf=-0.314076692
		6:leaf=0.260233253
booster[46]:
0:[f12<-0.781450033] yes=1,no=2,missing=1
	1:[f3<0.376100004] yes=3,no=4,missing=3
		3:leaf=0.476417869
		4:leaf=-0.122137867
	2:[f16<122884240] yes=5,no=6,missing=5
		5:leaf=-0.406722903
		6:leaf=0.0165646765
booster[47]:
0:[f7<153404512] yes=1,no=2,missing=1
	1:[f7<145849024] yes=3,no=4,missing=3
		3:leaf=-0.00320820021
		4:leaf=0.507252276
	2:[f15<0.741899967] yes=5,no=6,missing=5
		5:leaf=0.000274088932
		6:leaf=-0.549177766
booster[48]:
0:[f1<2.5] yes=1,no=2,missing=1
	1:[f9<0.124500006] yes=3,no=4,missing=3
		3:leaf=0.320899725
		4:leaf=-0.19789727
	2:[f6<0.105100006] yes=5,no=6,missing=5
		5:leaf=-0.313634783
		6:leaf=0.151687235
booster[49]:
0:[f6<0.527700007] yes=1,no=2,missing=1
	1:[f9<-0.257050008] yes=3,no=4,missing=3
		3:leaf=-0.117720231
		4:leaf=0.197582483
	2:[f15<-0.262100011] yes=5,no=6,missing=5
		5:leaf=0.119690731
		6:leaf=-0.509755313
booster[50]:
0:[f3<0.445249975] yes=1,no=2,missing=1
	1:[f4<141857376] yes=3,no=4,missing=3
		3:leaf=0.174100161
		4:leaf=-0.219977677
	2:[f16<152331488] yes=5,no=6,missing=5
		5:leaf=-0.0814168602
		6:leaf=0.493220866
booster[51]:
0:[f15<-0.612450004] yes=1,no=2,missing=1
	1:[f10<154397024] yes=3,no=4,missing=3
		3:leaf=-0.422205806
		4:leaf=0.230993867
	2:[f3<-0.461499989] yes=5,no=6,missing=5
		5:leaf=0.319081515
		6:leaf=-0.0219766181
booster[52]:
0:[f6<-0.756299973] yes=1,no=2,missing=1
	1:[f4<128389216] yes=3,no=4,missing=3
		3:leaf=-0.222336248
		4:leaf=0.526743233
	2:[f12<-0.399250001] yes=5,no=6,missing=5
		5:leaf=-0.256209791
		6:leaf=0.0238900576
booster[53]:
0:[f4<118742480] yes=1,no=2,missing=1
	1:[f12<0.205750003] yes=3,no=4,missing=3
		3:leaf=-0.0225393232
		4:leaf=0.543519974
	2:[f4<128683152] yes=5,no=6,missing=5
		5:leaf=-0.39682436
		6:leaf=0.0198947843
booster[54]:
0:[f12<-0.0616500005] yes=1,no=2,missing=1
	1:[f15<-0.663550019] yes=3,no=4,missing=3
		3:leaf=-0.336683631
		4:leaf=0.255686432
	2:[f6<0.3829] yes=5,no=6,missing=5
		5:leaf=-0.233052284
		6:leaf=0.298612803
booster[55]:
0:[f12<0.3829] yes=1,no=2,missing=1
	1:[f9<0.513750017] yes=3,no=4,missing=3
		3:leaf=-0.161241591
		4:leaf=0.212157726
	2:[f12<0.434000015] yes=5,no=6,missing=5
		5:leaf=0.768542588
		6:leaf=0.0194820669
booster[56]:
0:[f9<0.429650009] yes=1,no=2,missing=1
	1:[f3<-0.973450005] yes=3,no=4,missing=3
		3:leaf=-0.287700325
		4:leaf=0.141325414
	2:[f6<-0.274250001] yes=5,no=6,missing=5
		5:leaf=0.234583214
		6:leaf=-0.345888317
booster[57]:
0:[f12<-1.47959995] yes=1,no=2,missing=1
	1:leaf=0.392285317
	2:[f15<-1.11984992] yes=3,no=4,missing=3
		3:leaf=0.229333222
		4:leaf=-0.0707466677
booster[58]:
0:[f6<-1.13300002] yes=1,no=2,missing=1
	1:[f12<-0.503499985] yes=3,no=4,missing=3
		3:leaf=0.241419524
		4:leaf=-0.560054839
	2:[f6<-0.79339999] yes=5,no=6,missing=5
		5:leaf=0.45516935
		6:leaf=0.0188963339
booster[59]:
0:[f9<-0.938050032] yes=1,no=2,missing=1
	1:[f3<-0.323499978] yes=3,no=4,missing=3
		3:leaf=0.192813456
		4:leaf=-0.460456163
	2:[f12<-0.274250001] yes=5,no=6,missing=5
		5:leaf=-0.137125656
		6:leaf=0.135142326
booster[60]:
0:[f12<-0.0616500005] yes=1,no=2,missing=1
	1:[f7<129812624] yes=3,no=4,missing=3
		3:leaf=-0.221410781
		4:leaf=0.249401897
	2:[f13<206743872] yes=5,no=6,missing=5
		5:leaf=-0.189512238
		6:leaf=0.167699605
booster[61]:
0:[f10<124022512] yes=1,no=2,missing=1
	1:[f6<-0.178950012] yes=3,no=4,missing=3
		3:leaf=0.0218314063
		4:leaf=0.49334392
	2:[f13<119175128] yes=5,no=6,missing=5
		5:leaf=-0.523898661
		6:leaf=-0.0219371896
booster[62]:
0:[f13<128755696] yes=1,no=2,missing=1
	1:[f13<119175128] yes=3,no=4,missing=3
		3:leaf=-0.0100920899
		4:leaf=0.518778682
	2:[f12<-0.194999993] yes=5,no=6,missing=5
		5:leaf=-0.277875632
		6:leaf=0.0491411351
booster[63]:
0:[f12<-0.306100011] yes=1,no=2,missing=1
	1:[f15<-0.0837000012] yes=3,no=4,missing=3
		3:leaf=0.377029747
		4:leaf=-0.0429317728
	2:[f12<-0.257050008] yes=5,no=6,missing=5
		5:leaf=-0.51107204
		6:leaf=-0.0192733519
booster[64]:
0:[f10<250750848] yes=1,no=2,missing=1
	1:[f4<208314080] yes=3,no=4,missing=3
		3:leaf=-0.0170205403
		4:leaf=0.258096486
	2:leaf=-0.359160125
booster[65]:
0:[f16<197011264] yes=1,no=2,missing=1
	1:[f16<190872768] yes=3,no=4,missing=3
		3:leaf=-0.00143291045
		4:leaf=0.528219402
	2:[f4<197926928] yes=5,no=6,missing=5
		5:leaf=-0.528716743
		6:leaf=0.108870238
booster[66]:
0:[f4<217580640] yes=1,no=2,missing=1
	1:[f10<232359616] yes=3,no=4,missing=3
		3:leaf=0.0165591035
		4:leaf=0.513443589
	2:[f6<0.398499995] yes=5,no=6,missing=5
		5:leaf=0.0224762149
		6:leaf=-0.571156979
booster[67]:
0:[f12<1.01255] yes=1,no=2,missing=1
	1:[f13<152361984] yes=3,no=4,missing=3
		3:leaf=-0.0750163198
		4:leaf=0.122754805
	2:[f10<159711984] yes=5,no=6,missing=5
		5:leaf=0.102435976
		6:leaf=-0.495990157
booster[68]:
0:[f16<179328928] yes=1,no=2,missing=1
	1:[f6<0.0418500006] yes=3,no=4,missing=3
		3:leaf=-0.0819131732
		4:leaf=0.207612187
	2:[f12<0.544450045] yes=5,no=6,missing=5
		5:leaf=-0.26709646
		6:leaf=0.232335642
booster[69]:
0:[f16<228788352] yes=1,no=2,missing=1
	1:[f2<1.5] yes=3,no=4,missing=3
		3:leaf=0.221616387
		4:leaf=-0.0967317596
	2:[f9<-0.221199989] yes=5,no=6,missing=5
		5:leaf=-0.208731264
		6:leaf=0.442258477
booster[70]:
0:[f4<173937760] yes=1,no=2,missing=1
	1:[f10<158246560] yes=3,no=4,missing=3
		3:leaf=-0.0352721289
		4:leaf=0.297288537
	2:[f12<0.263300002] yes=5,no=6,missing=5
		5:leaf=0.116076611
		6:leaf=-0.388820291
booster[71]:
0:[f7<136861632] yes=1,no=2,missing=1
	1:[f7<129812624] yes=3,no=4,missing=3
		3:leaf=-0.0128914546
		4:leaf=0.537389755
	2:[f7<139383008] yes=5,no=6,missing=5
		5:leaf=-0.697957873
		6:leaf=-0.00112282753
booster[72]:
0:[f3<-0.346899986] yes=1,no=2,missing=1
	1:[f3<-0.435100019] yes=3,no=4,missing=3
		3:leaf=-0.00482027046
		4:leaf=-0.535659552
	2:[f3<-0.257050008] yes=5,no=6,missing=5
		5:leaf=0.458486736
		6:leaf=-0.000254377635
booster[73]:
0:[f7<246451392] yes=1,no=2,missing=1
	1:[f13<178035648] yes=3,no=4,missing=3
		3:leaf=0.0295647141
		4:leaf=-0.145700738
	2:leaf=0.302990079
booster[74]:
0:[f7<181021408] yes=1,no=2,missing=1
	1:[f3<0.445249975] yes=3,no=4,missing=3
		3:leaf=-0.125042289
		4:leaf=0.145681858
	2:[f15<0.135049999] yes=5,no=6,missing=5
		5:leaf=-0.107682519
		6:leaf=0.351346105
booster[75]:
0:[f3<0.556450009] yes=1,no=2,missing=1
	1:[f12<0.87440002] yes=3,no=4,missing=3
		3:leaf=0.115744092
		4:leaf=-0.29327333
	2:[f7<119065200] yes=5,no=6,missing=5
		5:leaf=0.306009322
		6:leaf=-0.306080669
booster[76]:
0:[f12<0.614499986] yes=1,no=2,missing=1
	1:[f13<137850048] yes=3,no=4,missing=3
		3:leaf=0.128812343
		4:leaf=-0.128405407
	2:[f3<-0.0872500017] yes=5,no=6,missing=5
		5:leaf=-0.15866147
		6:leaf=0.417850733
booster[77]:
0:[f13<142281216] yes=1,no=2,missing=1
	1:[f15<0.559000015] yes=3,no=4,missing=3
		3:leaf=-0.234937578
		4:leaf=0.21510984
	2:[f16<143689808] yes=5,no=6,missing=5
		5:leaf=0.378716797
		6:leaf=0.0155492024
booster[78]:
0:[f15<0.342200011] yes=1,no=2,missing=1
	1:[f13<151938496] yes=3,no=4,missing=3
		3:leaf=-0.079559885
		4:leaf=0.21950464
	2:[f6<0.326799989] yes=5,no=6,missing=5
		5:leaf=-0.291412979
		6:leaf=0.197996289
booster[79]:
0:[f13<145849024] yes=1,no=2,missing=1
	1:[f6<-0.334899992] yes=3,no=4,missing=3
		3:leaf=0.394806266
		4:leaf=-0.0237717256
	2:[f16<152247168] yes=5,no=6,missing=5
		5:leaf=-0.302633256
		6:leaf=-0.013904538
booster[80]:
0:[f7<113357528] yes=1,no=2,missing=1
	1:leaf=-0.25381732
	2:[f7<191966336] yes=3,no=4,missing=3
		3:leaf=0.0865732878
		4:leaf=-0.13514179
booster[81]:
0:[f16<228788352] yes=1,no=2,missing=1
	1:[f3<-0.257050008] yes=3,no=4,missing=3
		3:leaf=0.0932594612
		4:leaf=-0.111021154
	2:[f6<0.304450005] yes=5,no=6,missing=5
		5:leaf=-0.06887649
		6:leaf=0.385544389
booster[82]:
0:[f3<-0.179199994] yes=1,no=2,missing=1
	1:[f15<-0.210949987] yes=3,no=4,missing=3
		3:leaf=0.123190269
		4:leaf=-0.205724329
	2:[f15<-0.00740000047] yes=5,no=6,missing=5
		5:leaf=-0.0371265002
		6:leaf=0.178112268
booster[83]:
0:[f16<127241952] yes=1,no=2,missing=1
	1:[f6<0.306200027] yes=3,no=4,missing=3
		3:leaf=0.347914517
		4:leaf=-0.239836469
	2:[f9<0.138999999] yes=5,no=6,missing=5
		5:leaf=0.0762049556
		6:leaf=-0.163376734
booster[84]:
0:[f9<-0.299049973] yes=1,no=2,missing=1
	1:[f2<4.5] yes=3,no=4,missing=3
		3:leaf=-0.2611866
		4:leaf=0.281155139
	2:[f2<4.5] yes=5,no=6,missing=5
		5:leaf=0.139627233
		6:leaf=-0.171717882
booster[85]:
0:[f6<0.747099996] yes=1,no=2,missing=1
	1:[f6<0.527700007] yes=3,no=4,missing=3
		3:leaf=0.0152182775
		4:leaf=-0.409807175
	2:[f16<138336928] yes=5,no=6,missing=5
		5:leaf=-0.151871189
		6:leaf=0.33763957
booster[86]:
0:[f6<0.176850006] yes=1,no=2,missing=1
	1:[f10<158793280] yes=3,no=4,missing=3
		3:leaf=-0.214881197
		4:leaf=0.0745126754
	2:[f7<159194400] yes=5,no=6,missing=5
		5:leaf=0.308926314
		6:leaf=-0.0921352059
booster[87]:
0:[f9<1.36334991] yes=1,no=2,missing=1
	1:[f9<0.991649985] yes=3,no=4,missing=3
		3:leaf=-0.00752393669
		4:leaf=0.356461287
	2:leaf=-0.229221299
booster[88]:
0:[f6<0.060800001] yes=1,no=2,missing=1
	1:[f12<0.114350006] yes=3,no=4,missing=3
		3:leaf=0.236306697
		4:leaf=-0.126566857
	2:[f14<2.5] yes=5,no=6,missing=5
		5:leaf=-0.247063205
		6:leaf=0.0663333088
booster[89]:
0:[f1<2.5] yes=1,no=2,missing=1
	1:[f9<0.0565499999] yes=3,no=4,missing=3
		3:leaf=0.286392093
		4:leaf=-0.134099215
	2:[f6<0.105100006] yes=5,no=6,missing=5
		5:leaf=-0.233017966
		6:leaf=0.0974142253
booster[90]:
0:[f12<0.3829] yes=1,no=2,missing=1
	1:[f6<0.060800001] yes=3,no=4,missing=3
		3:leaf=0.0735222176
		4:leaf=-0.180323705
	2:[f6<-0.177949995] yes=5,no=6,missing=5
		5:leaf=-0.0927253813
		6:leaf=0.282779992
booster[91]:
0:[f4<128683152] yes=1,no=2,missing=1
	1:[f15<-0.183050007] yes=3,no=4,missing=3
		3:leaf=0.126242876
		4:leaf=-0.358734727
	2:[f15<0.287850022] yes=5,no=6,missing=5
		5:leaf=-0.0253393687
		6:leaf=0.219165742
booster[92]:
0:[f9<0.599699974] yes=1,no=2,missing=1
	1:[f13<178035648] yes=3,no=4,missing=3
		3:leaf=0.040933501
		4:leaf=-0.197578549
	2:[f10<173480992] yes=5,no=6,missing=5
		5:leaf=-0.0534292199
		6:leaf=0.322129577
booster[93]:
0:[f7<139383008] yes=1,no=2,missing=1
	1:[f1<1.5] yes=3,no=4,missing=3
		3:leaf=0.159448326
		4:leaf=-0.187802047
	2:[f12<0.268000007] yes=5,no=6,missing=5
		5:leaf=0.166771039
		6:leaf=-0.087275736
booster[94]:
0:[f6<0.797250032] yes=1,no=2,missing=1
	1:[f6<0.627499998] yes=3,no=4,missing=3
		3:leaf=0.00104355335
		4:leaf=0.338952988
	2:[f14<3.5] yes=5,no=6,missing=5
		5:leaf=-0.308063835
		6:leaf=0.0859450027
booster[95]:
0:[f12<-0.467599988] yes=1,no=2,missing=1
	1:[f9<-0.476700008] yes=3,no=4,missing=3
		3:leaf=0.274061888
		4:leaf=-0.251432657
	2:[f9<-0.586899996] yes=5,no=6,missing=5
		5:leaf=-0.154246524
		6:leaf=0.100338608
booster[96]:
0:[f4<134266176] yes=1,no=2,missing=1
	1:[f15<-0.664299965] yes=3,no=4,missing=3
		3:leaf=-0.198202759
		4:leaf=0.248860136
	2:[f10<134566832] yes=5,no=6,missing=5
		5:leaf=0.196773469
		6:leaf=-0.115608275
booster[97]:
0:[f4<190333248] yes=1,no=2,missing=1
	1:[f15<-0.318899989] yes=3,no=4,missing=3
		3:leaf=0.103657708
		4:leaf=-0.14258568
	2:[f13<166773280] yes=5,no=6,missing=5
		5:leaf=-0.171358004
		6:leaf=0.299046308
booster[98]:
0:[f13<222002368] yes=1,no=2,missing=1
	1:[f15<-0.37349999] yes=3,no=4,missing=3
		3:leaf=-0.110285103
		4:leaf=0.105605789
	2:leaf=-0.187056482
booster[99]:
0:[f9<0.599699974] yes=1,no=2,missing=1
	1:[f6<-0.176100001] yes=3,no=4,missing=3
		3:leaf=-0.198871121
		4:leaf=0.0575354733
	2:[f6<-0.293950021] yes=5,no=6,missing=5
		5:leaf=0.364952743
		6:leaf=-0.0784512907
booster[100]:
0:[f6<0.060800001] yes=1,no=2,missing=1
	1:[f4<144684288] yes=3,no=4,missing=3
		3:leaf=-0.0602716357
		4:leaf=0.206717849
	2:[f3<-0.393000007] yes=5,no=6,missing=5
		5:leaf=0.176301882
		6:leaf=-0.152721137
booster[101]:
0:[f9<-0.476000011] yes=1,no=2,missing=1
	1:[f13<143395568] yes=3,no=4,missing=3
		3:leaf=0.343649417
		4:leaf=-0.0767686367
	2:[f9<-0.299049973] yes=5,no=6,missing=5
		5:leaf=-0.276094884
		6:leaf=0.0157732572
booster[102]:
0:[f3<-0.179199994] yes=1,no=2,missing=1
	1:[f16<140579200] yes=3,no=4,missing=3
		3:leaf=0.0617984608
		4:leaf=-0.200459972
	2:[f15<0.660899997] yes=5,no=6,missing=5
		5:leaf=0.11699792
		6:leaf=-0.173237532
booster[103]:
0:[f13<152361984] yes=1,no=2,missing=1
	1:[f15<0.552450001] yes=3,no=4,missing=3
		3:leaf=-0.198691398
		4:leaf=0.215350151
	2:[f15<0.660899997] yes=5,no=6,missing=5
		5:leaf=0.165723622
		6:leaf=-0.245508447
booster[104]:
0:[f15<-0.1699] yes=1,no=2,missing=1
	1:[f9<-0.451600015] yes=3,no=4,missing=3
		3:leaf=-0.114601426
		4:leaf=0.193002567
	2:[f9<-0.459299982] yes=5,no=6,missing=5
		5:leaf=0.11860726
		6:leaf=-0.141816065
booster[105]:
0:[f12<0.978199959] yes=1,no=2,missing=1
	1:[f8<4.5] yes=3,no=4,missing=3
		3:leaf=0.0778507516
		4:leaf=-0.111724153
	2:leaf=-0.186781675
booster[106]:
0:[f6<0.176850006] yes=1,no=2,missing=1
	1:[f4<166773280] yes=3,no=4,missing=3
		3:leaf=0.0604263023
		4:leaf=-0.296748221
	2:[f6<0.527700007] yes=5,no=6,missing=5
		5:leaf=0.253296345
		6:leaf=-0.0983328223
booster[107]:
0:[f4<190333248] yes=1,no=2,missing=1
	1:[f2<4.5] yes=3,no=4,missing=3
		3:leaf=0.0163598899
		4:leaf=-0.241138995
	2:[f15<0.127849996] yes=5,no=6,missing=5
		5:leaf=-0.0701958612
		6:leaf=0.324079067
booster[108]:
0:[f6<0.627499998] yes=1,no=2,missing=1
	1:[f7<115031696] yes=3,no=4,missing=3
		3:leaf=0.189802051
		4:leaf=-0.070754312
	2:[f16<137517648] yes=5,no=6,missing=5
		5:leaf=-0.127602652
		6:leaf=0.263051361
booster[109]:
0:[f7<129812624] yes=1,no=2,missing=1
	1:[f16<132035944] yes=3,no=4,missing=3
		3:leaf=0.0497012325
		4:leaf=-0.269656032
	2:[f10<163484704] yes=5,no=6,missing=5
		5:leaf=0.16344741
		6:leaf=-0.0510551706
booster[110]:
0:[f13<120830784] yes=1,no=2,missing=1
	1:[f15<-0.175850004] yes=3,no=4,missing=3
		3:leaf=0.0712518245
		4:leaf=-0.334174305
	2:[f14<1.5] yes=5,no=6,missing=5
		5:leaf=0.194023237
		6:leaf=-0.0211889092
booster[111]:
0:[f6<0.527700007] yes=1,no=2,missing=1
	1:[f13<208722144] yes=3,no=4,missing=3
		3:leaf=-0.0170412287
		4:leaf=0.249640897
	2:[f14<3.5] yes=5,no=6,missing=5
		5:leaf=-0.230937287
		6:leaf=0.0818776265
booster[112]:
0:[f13<237821984] yes=1,no=2,missing=1
	1:[f2<2.5] yes=3,no=4,missing=3
		3:leaf=0.120063752
		4:leaf=-0.0375503376
	2:leaf=-0.202310354
booster[113]:
0:[f12<0.3829] yes=1,no=2,missing=1
	1:[f3<0.255699992] yes=3,no=4,missing=3
		3:leaf=0.0428712629
		4:leaf=-0.194688901
	2:[f9<0.524749994] yes=5,no=6,missing=5
		5:leaf=0.175556302
		6:leaf=-0.15184474
booster[114]:
0:[f3<0.277649999] yes=1,no=2,missing=1
	1:[f4<141854288] yes=3,no=4,missing=3
		3:leaf=0.0939625129
		4:leaf=-0.151545376
	2:[f4<143680448] yes=5,no=6,missing=5
		5:leaf=-0.219554871
		6:leaf=0.298028022
booster[115]:
0:[f4<128683152] yes=1,no=2,missing=1
	1:[f15<-0.0895500034] yes=3,no=4,missing=3
		3:leaf=0.0525892153
		4:leaf=-0.253824919
	2:[f16<148263904] yes=5,no=6,missing=5
		5:leaf=0.160244808
		6:leaf=-0.0306092594
booster[116]:
0:[f16<138297424] yes=1,no=2,missing=1
	1:[f6<-0.0824999958] yes=3,no=4,missing=3
		3:leaf=0.0532659329
		4:leaf=-0.276876837
	2:[f9<0.138999999] yes=5,no=6,missing=5
		5:leaf=0.146420956
		6:leaf=-0.0717826858
booster[117]:
0:[f9<0.599699974] yes=1,no=2,missing=1
	1:[f6<-0.466650009] yes=3,no=4,missing=3
		3:leaf=-0.206161827
		4:leaf=0.0110645359
	2:[f3<-0.0531499982] yes=5,no=6,missing=5
		5:leaf=0.267814368
		6:leaf=-0.0409499891
booster[118]:
0:[f6<-0.298049986] yes=1,no=2,missing=1
	1:[f10<139761216] yes=3,no=4,missing=3
		3:leaf=-0.114970997
		4:leaf=0.228510499
	2:[f14<4.5] yes=5,no=6,missing=5
		5:leaf=-0.10623391
		6:leaf=0.166751906
booster[119]:
0:[f13<178035648] yes=1,no=2,missing=1
	1:[f15<-0.523200035] yes=3,no=4,missing=3
		3:leaf=-0.0988621488
		4:leaf=0.147705615
	2:[f16<190872768] yes=5,no=6,missing=5
		5:leaf=-0.268771172
		6:leaf=0.0449082628
booster[120]:
0:[f15<-1.11984992] yes=1,no=2,missing=1
	1:leaf=0.129985094
	2:[f12<-0.0616500005] yes=3,no=4,missing=3
		3:leaf=0.0674151555
		4:leaf=-0.114985451
booster[121]:
0:[f12<-0.173500001] yes=1,no=2,missing=1
	1:[f3<-0.4736] yes=3,no=4,missing=3
		3:leaf=0.133987546
		4:leaf=-0.168355837
	2:[f6<0.328750014] yes=5,no=6,missing=5
		5:leaf=-0.0270061083
		6:leaf=0.233276486
booster[122]:
0:[f3<-0.179199994] yes=1,no=2,missing=1
	1:[f10<168608288] yes=3,no=4,missing=3
		3:leaf=-0.188022122
		4:leaf=0.0734297186
	2:[f10<172971904] yes=5,no=6,missing=5
		5:leaf=0.150837153
		6:leaf=-0.0353777446
booster[123]:
0:[f3<0.556450009] yes=1,no=2,missing=1
	1:[f7<128683152] yes=3,no=4,missing=3
		3:leaf=-0.115533426
		4:leaf=0.0788688064
	2:[f8<3.5] yes=5,no=6,missing=5
		5:leaf=0.0621662401
		6:leaf=-0.219482809
booster[124]:
0:[f16<127241952] yes=1,no=2,missing=1
	1:[f6<-0.0824999958] yes=3,no=4,missing=3
		3:leaf=0.218367592
		4:leaf=-0.0461384393
	2:[f13<137321616] yes=5,no=6,missing=5
		5:leaf=0.111198477
		6:leaf=-0.0911031738
booster[125]:
0:[f13<149008960] yes=1,no=2,missing=1
	1:[f9<-0.476700008] yes=3,no=4,missing=3
		3:leaf=0.156011045
		4:leaf=-0.19027862
	2:[f9<-0.299049973] yes=5,no=6,missing=5
		5:leaf=-0.118077487
		6:leaf=0.170986444
booster[126]:
0:[f7<214550784] yes=1,no=2,missing=1
	1:[f11<2.5] yes=3,no=4,missing=3
		3:leaf=-0.0740217566
		4:leaf=0.105922312
	2:[f9<0.159249991] yes=5,no=6,missing=5
		5:leaf=0.00764392968
		6:leaf=-0.234149531
booster[127]:
0:[f9<-1.23000002] yes=1,no=2,missing=1
	1:leaf=-0.160454273
	2:[f16<127241952] yes=3,no=4,missing=3
		3:leaf=0.161462322
		4:leaf=-0.0339029394
booster[128]:
0:[f10<194155408] yes=1,no=2,missing=1
	1:[f4<195330816] yes=3,no=4,missing=3
		3:leaf=0.00982837193
		4:leaf=-0.255741864
	2:[f3<-0.220249996] yes=5,no=6,missing=5
		5:leaf=-0.110938251
		6:leaf=0.221887857
booster[129]:
0:[f13<119175128] yes=1,no=2,missing=1
	1:leaf=-0.156963155
	2:[f4<128683152] yes=3,no=4,missing=3
		3:leaf=-0.138617411
		4:leaf=0.056124296
booster[130]:
0:[f16<176195936] yes=1,no=2,missing=1
	1:[f6<0.0549499989] yes=3,no=4,missing=3
		3:leaf=-0.0650225133
		4:leaf=0.1325306
	2:[f12<-0.0275500007] yes=5,no=6,missing=5
		5:leaf=0.0865471512
		6:leaf=-0.213767782
booster[131]:
0:[f5<2.5] yes=1,no=2,missing=1
	1:[f15<0.135299996] yes=3,no=4,missing=3
		3:leaf=-0.164962947
		4:leaf=0.104208849
	2:[f15<0.131400004] yes=5,no=6,missing=5
		5:leaf=0.117988944
		6:leaf=-0.0430572033
booster[132]:
0:[f12<0.3829] yes=1,no=2,missing=1
	1:[f9<0.533100009] yes=3,no=4,missing=3
		3:leaf=-0.0895585418
		4:leaf=0.10594587
	2:[f16<136775968] yes=5,no=6,missing=5
		5:leaf=-0.0862013474
		6:leaf=0.176384419
booster[133]:
0:[f9<0.138999999] yes=1,no=2,missing=1
	1:[f11<1.5] yes=3,no=4,missing=3
		3:leaf=-0.167676523
		4:leaf=0.134167895
	2:[f4<154995360] yes=5,no=6,missing=5
		5:leaf=0.0963979587
		6:leaf=-0.197025731
booster[134]:
0:[f4<190333248] yes=1,no=2,missing=1
	1:[f15<-0.318899989] yes=3,no=4,missing=3
		3:leaf=0.0590057299
		4:leaf=-0.12868084
	2:[f13<222002368] yes=5,no=6,missing=5
		5:leaf=0.19713895
		6:leaf=-0.0716477558
booster[135]:
0:[f15<-0.523200035] yes=1,no=2,missing=1
	1:[f12<0.346750021] yes=3,no=4,missing=3
		3:leaf=-0.207136154
		4:leaf=0.0611635856
	2:[f12<0.316399992] yes=5,no=6,missing=5
		5:leaf=0.11743591
		6:leaf=-0.0756983683
booster[136]:
0:[f14<3.5] yes=1,no=2,missing=1
	1:[f13<191367920] yes=3,no=4,missing=3
		3:leaf=-0.128810614
		4:leaf=0.135959268
	2:[f10<190597408] yes=5,no=6,missing=5
		5:leaf=0.142526001
		6:leaf=-0.102998681
booster[137]:
0:[f7<115304808] yes=1,no=2,missing=1
	1:leaf=0.146721661
	2:[f9<-0.586899996] yes=3,no=4,missing=3
		3:leaf=-0.171021715
		4:leaf=0.0257297643
booster[138]:
0:[f9<-0.476000011] yes=1,no=2,missing=1
	1:[f12<-0.0370499976] yes=3,no=4,missing=3
		3:leaf=0.251244336
		4:leaf=-0.0680747703
	2:[f12<-0.274250001] yes=5,no=6,missing=5
		5:leaf=-0.179816276
		6:leaf=0.0474813357
booster[139]:
0:[f12<-0.781450033] yes=1,no=2,missing=1
	1:leaf=0.122530557
	2:[f16<157359936] yes=3,no=4,missing=3
		3:leaf=0.0512536317
		4:leaf=-0.0983524695
booster[140]:
0:[f16<168728544] yes=1,no=2,missing=1
	1:[f7<136861632] yes=3,no=4,missing=3
		3:leaf=0.0456099734
		4:leaf=-0.124506004
	2:[f7<185779488] yes=5,no=6,missing=5
		5:leaf=0.20829016
		6:leaf=-0.0381959714
booster[141]:
0:[f4<144684288] yes=1,no=2,missing=1
	1:[f12<0.178950012] yes=3,no=4,missing=3
		3:leaf=-0.221410573
		4:leaf=0.113686189
	2:[f12<0.124500006] yes=5,no=6,missing=5
		5:leaf=0.167420745
		6:leaf=-0.0467369556
booster[142]:
0:[f15<0.149399996] yes=1,no=2,missing=1
	1:[f6<0.661900043] yes=3,no=4,missing=3
		3:leaf=-0.116070412
		4:leaf=0.132240787
	2:[f9<0.322549999] yes=5,no=6,missing=5
		5:leaf=0.168935791
		6:leaf=-0.0911034867
booster[143]:
0:[f6<0.527700007] yes=1,no=2,missing=1
	1:[f9<-0.257050008] yes=3,no=4,missing=3
		3:leaf=-0.052037321
		4:leaf=0.100570291
	2:[f15<-0.183050007] yes=5,no=6,missing=5
		5:leaf=0.0460740551
		6:leaf=-0.193108901
booster[144]:
0:[f16<159846144] yes=1,no=2,missing=1
	1:[f15<-0.612450004] yes=3,no=4,missing=3
		3:leaf=-0.139902338
		4:leaf=0.122189231
	2:[f15<-0.336600006] yes=5,no=6,missing=5
		5:leaf=0.112970479
		6:leaf=-0.142834857
booster[145]:
0:[f10<194155408] yes=1,no=2,missing=1
	1:[f6<-0.632250011] yes=3,no=4,missing=3
		3:leaf=0.10718675
		4:leaf=-0.088537246
	2:[f16<207104352] yes=5,no=6,missing=5
		5:leaf=0.189319208
		6:leaf=-0.0227728449
booster[146]:
0:[f6<-0.466650009] yes=1,no=2,missing=1
	1:[f3<0.278050005] yes=3,no=4,missing=3
		3:leaf=-0.229745358
		4:leaf=0.106579065
	2:[f12<-0.612450004] yes=5,no=6,missing=5
		5:leaf=-0.133362561
		6:leaf=0.110256605
booster[147]:
0:[f12<-0.306100011] yes=1,no=2,missing=1
	1:[f7<129812624] yes=3,no=4,missing=3
		3:leaf=-0.0901288688
		4:leaf=0.158788562
	2:[f13<140145664] yes=5,no=6,missing=5
		5:leaf=-0.195711479
		6:leaf=0.0177078135
booster[148]:
0:[f4<139073248] yes=1,no=2,missing=1
	1:[f15<-0.183050007] yes=3,no=4,missing=3
		3:leaf=0.262988687
		4:leaf=-0.0541269295
	2:[f15<0.000699999742] yes=5,no=6,missing=5
		5:leaf=-0.175472543
		6:leaf=0.0410285071
booster[149]:
0:[f13<137850048] yes=1,no=2,missing=1
	1:[f16<124041744] yes=3,no=4,missing=3
		3:leaf=-0.072014533
		4:leaf=0.214719132
	2:[f12<0.3829] yes=5,no=6,missing=5
		5:leaf=-0.0956317708
		6:leaf=0.0874412358
booster[150]:
0:[f12<0.706550002] yes=1,no=2,missing=1
	1:[f1<2.5] yes=3,no=4,missing=3
		3:leaf=0.148373067
		4:leaf=-0.023263501
	2:leaf=-0.134522945
booster[151]:
0:[f9<-0.938050032] yes=1,no=2,missing=1
	1:leaf=-0.118436009
	2:[f6<0.176850006] yes=3,no=4,missing=3
		3:leaf=-0.057973545
		4:leaf=0.136905491
booster[152]:
0:[f6<0.060800001] yes=1,no=2,missing=1
	1:[f4<144684288] yes=3,no=4,missing=3
		3:leaf=-0.0433316119
		4:leaf=0.149548411
	2:[f10<147506128] yes=5,no=6,missing=5
		5:leaf=0.0851071551
		6:leaf=-0.155611753
booster[153]:
0:[f15<0.342200011] yes=1,no=2,missing=1
	1:[f13<151938496] yes=3,no=4,missing=3
		3:leaf=-0.06461972
		4:leaf=0.140205801
	2:[f11<2.5] yes=5,no=6,missing=5
		5:leaf=0.0918509811
		6:leaf=-0.190464556
booster[154]:
0:[f16<176195936] yes=1,no=2,missing=1
	1:[f12<0.518949986] yes=3,no=4,missing=3
		3:leaf=0.102896266
		4:leaf=-0.0957557485
	2:[f16<190333248] yes=5,no=6,missing=5
		5:leaf=-0.216390133
		6:leaf=0.0208286028
booster[155]:
0:[f12<0.3829] yes=1,no=2,missing=1
	1:[f9<0.522350013] yes=3,no=4,missing=3
		3:leaf=-0.117366888
		4:leaf=0.107832149
	2:[f6<-0.177949995] yes=5,no=6,missing=5
		5:leaf=-0.102960356
		6:leaf=0.179350719
booster[156]:
0:[f9<0.138999999] yes=1,no=2,missing=1
	1:[f3<-0.346899986] yes=3,no=4,missing=3
		3:leaf=-0.0863169208
		4:leaf=0.118305109
	2:[f12<-0.0665000007] yes=5,no=6,missing=5
		5:leaf=0.0563597716
		6:leaf=-0.161961153
booster[157]:
0:[f3<-0.435100019] yes=1,no=2,missing=1
	1:[f15<-0.108449996] yes=3,no=4,missing=3
		3:leaf=-0.0324609131
		4:leaf=0.187259808
	2:[f12<-0.171900004] yes=5,no=6,missing=5
		5:leaf=-0.154025197
		6:leaf=0.0307644419
booster[158]:
0:[f6<-0.274250001] yes=1,no=2,missing=1
	1:[f16<139588160] yes=3,no=4,missing=3
		3:leaf=0.199251473
		4:leaf=-0.0558939949
	2:[f16<138297424] yes=5,no=6,missing=5
		5:leaf=-0.192635596
		6:leaf=0.0367649496
booster[159]:
0:[f4<217580640] yes=1,no=2,missing=1
	1:[f4<190333248] yes=3,no=4,missing=3
		3:leaf=-0.018458724
		4:leaf=0.177636847
	2:leaf=-0.114343137
booster[160]:
0:[f4<154397024] yes=1,no=2,missing=1
	1:[f3<0.345650017] yes=3,no=4,missing=3
		3:leaf=0.139705583
		4:leaf=-0.0973557979
	2:[f3<0.278699994] yes=5,no=6,missing=5
		5:leaf=-0.111938827
		6:leaf=0.072745584
booster[161]:
0:[f10<194155408] yes=1,no=2,missing=1
	1:[f6<-0.298500001] yes=3,no=4,missing=3
		3:leaf=0.0780029297
		4:leaf=-0.0945681781
	2:[f7<214550784] yes=5,no=6,missing=5
		5:leaf=0.163617074
		6:leaf=-0.0256107394
booster[162]:
0:[f6<-0.466650009] yes=1,no=2,missing=1
	1:[f3<0.278050005] yes=3,no=4,missing=3
		3:leaf=-0.197038069
		4:leaf=0.0736573339
	2:[f3<0.343850017] yes=5,no=6,missing=5
		5:leaf=0.108186282
		6:leaf=-0.10038428
